solver_type L2R_LR
nr_class 1
label 0
nr_feature 2060
bias -1.000000000000000
w
1.243732763357937 
1.243732763357937 
0.4654700094294891 
0.4654700094294891 
0.001230247572853577 
0.001230247572853577 
0.001230247572853577 
0.1449631324103946 
1.605583124700074 
1.605583124700074 
0.4654700094294891 
0.4654700094294891 
0.0003861635032593836 
0.0003861635032593836 
0.001230247572853577 
0.001230247572853577 
0.001230247572853577 
0.1428321634293333 
0.0003861635032593836 
0.0003861635032593836 
0.001230247572853577 
0.0005361336209645233 
0.0005361336209645233 
0.0001417153721851195 
0.4650838459262298 
0.0005361336209645233 
0.0005361336209645233 
0.4650838459262298 
0.005056942517278345 
0.0005355262646134020 
0.001071052529226804 
0.0001415337653608404 
0.0005355262646134020 
0.001071052529226804 
0.0005361336209645233 
0.0005361336209645233 
0.0001417153721851195 
0.0005361336209645233 
0.0005361336209645233 
0.0005964032228339916 
0.1186907750695075 
9.161860516700249e-05 
0.0005964032228339916 
0.07057949455396599 
0.4599252656952593 
0.1662194846772211 
0.1662194846772211 
0.2967439553741880 
0.001232957661411776 
0.1662194846772211 
0.1662194846772211 
0.1657296006492020 
0.1657296006492020 
0.3333719481671846 
0.1657296006492020 
0.004629719221615532 
0.7782627539284487 
0.1657296006492020 
0.1657296006492020 
0.1657296006492020 
0.7774186698588544 
0.2154268175110526 
0.2154268175110526 
0.3883140974098065 
0.2154268175110526 
0.2179587355861405 
0.2154268175110526 
0.2154268175110526 
0.2154268175110526 
0.2154268175110526 
0.2131228416568101 
0.4181652555643783 
0.2131228416568101 
0.2162331218955262 
0.2131228416568101 
0.2131228416568101 
0.2131228416568101 
0.2131228416568101 
0.2131228416568101 
0.3131842209885656 
0.04246422921378713 
0.04836002625844200 
0.04466667665952969 
0.04246422921378713 
0.04246422921378713 
0.04466667665952969 
0.04246422921378713 
0.0005355262646134020 
0.0001415337653608404 
0.0005355262646134020 
0.0001133138278948209 
0.005970353288035815 
0.0001133138278948209 
0.0001133138278948209 
0.0003105766963626306 
0.05157035515780921 
0.002807673142626562 
0.06035275035471509 
0.05157035515780921 
0.002705123078078913 
0.002705123078078913 
0.08216826855023031 
0.08216826855023031 
0.0005047846176669892 
0.002863330506868318 
0.002863330506868318 
0.002863330506868318 
0.002863330506868318 
0.01629578254751266 
0.01629578254751266 
0.01629578254751266 
0.01332480384882797 
0.01629578254751266 
0.01629578254751266 
0.2693594009490063 
0.1699622210919561 
0.1699622210919561 
0.1699622210919561 
0.1699622210919561 
0.1646573143849741 
0.1699622210919561 
0.1699622210919561 
0.1699622210919561 
0.2278886499786490 
0.2278886499786490 
0.2278886499786490 
0.2278886499786490 
0.2278886499786490 
0.2278886499786490 
0.2278886499786490 
0.2278886499786490 
0.2278886499786490 
0.2261881726975357 
0.2261881726975357 
0.2261881726975357 
0.2261881726975357 
0.2499595460676885 
0.2261881726975357 
0.2261881726975357 
0.2261881726975357 
0.2261881726975357 
0.2230001328101574 
0.2230001328101574 
0.2230001328101574 
0.2698034203108145 
0.2360402490294230 
0.2230001328101574 
0.2230001328101574 
0.2230001328101574 
0.2315661705866796 
0.03682458542180327 
0.03682458542180327 
0.1869882446633064 
0.2059099522056896 
0.03682458542180327 
0.03682458542180327 
0.1869882446633064 
0.03745328625967807 
0.007601933980486624 
0.002841186252085286 
0.005524183403613651 
0.002841186252085286 
0.01621270896387154 
0.01563177873295009 
0.01327451434946902 
0.01563177873295009 
0.01563177873295009 
0.02269032468645041 
0.02535896417413106 
0.02215119612299754 
0.02269032468645041 
0.02535896417413106 
0.002682997151528365 
0.0005809302309214540 
0.002863330506868318 
0.002863330506868318 
0.002863330506868318 
0.002863330506868318 
0.0007208479095352817 
0.0007208479095352817 
0.0006070487991369970 
0.0007208479095352817 
0.0007208479095352817 
0.005775115734621518 
0.2299966490319113 
0.005092933539098420 
0.002270599279156320 
0.001355639044796577 
0.05550459848518304 
0.001143343214169357 
0.0006473172863381884 
0.05252467839151877 
0.01138367985871378 
0.002822334259942100 
0.01408296198353843 
0.0007083217584583888 
0.002851326323739161 
0.002863330506868318 
0.002863330506868318 
0.002863330506868318 
0.002863330506868318 
0.0007208479095352817 
0.0007208479095352817 
0.0006070487991369970 
0.0007208479095352817 
0.0007208479095352817 
0.003745519275954088 
0.002862355916766525 
0.002862355916766525 
0.002862355916766525 
0.0007208479095352817 
0.0007208479095352817 
0.0006070487991369970 
0.0007208479095352817 
0.0007208479095352817 
0.002527566956450047 
0.002527566956450047 
0.06611025567124396 
0.0005562925252887309 
0.006399636187971094 
0.002863330506868318 
0.002863330506868318 
0.002863330506868318 
0.002863330506868318 
0.01624851253671215 
0.01636059925898989 
0.01932617582678249 
0.01328640544900967 
0.01624851253671215 
0.01624851253671215 
0.02568716524233529 
0.02568716524233529 
0.02646622375542653 
0.02507417073952295 
0.02568716524233529 
0.02568716524233529 
0.02646622375542653 
0.002340554137909803 
0.002340554137909803 
0.002340554137909803 
0.2527294244122210 
0.0005596360599662435 
0.0004746684586589896 
0.0005596360599662435 
0.0005596360599662435 
0.009557989587375804 
0.002835775966299589 
0.005644621947061139 
0.002835775966299589 
0.04373793062718157 
0.01549782524055739 
0.03341674495245458 
0.02452469511566528 
0.01549782524055739 
0.01549782524055739 
0.06622364627692513 
0.02084133969509337 
0.2050112877502294 
0.03996890274744941 
0.02084133969509337 
0.02084133969509337 
0.02084133969509337 
0.003117332212337522 
0.008713773729630604 
0.003117332212337522 
0.003117332212337522 
0.005926178193099072 
0.01370828878184867 
0.02888720578722814 
0.01370828878184867 
0.01370828878184867 
0.02824010538662418 
0.02824010538662418 
0.02526513020218685 
0.04538230658183177 
0.02526513020218685 
0.04538230658183177 
0.04538230658183177 
0.002847211702387146 
0.005659776591673184 
0.002847211702387146 
0.001415817720646568 
0.0007199212641663607 
0.001192714239616673 
0.0007199212641663607 
0.0007199212641663607 
0.01447782816400987 
0.002812564889286039 
0.03334373511658341 
0.0006958964564802074 
0.001992394678989900 
0.005488286562683430 
0.002665522160282301 
0.002673528158118377 
0.001103309663956999 
0.0005946542764136882 
0.002822764402401129 
0.002822764402401129 
0.0007123180024761833 
0.0007960354279771442 
0.002271630997000825 
0.002271630997000825 
0.002271630997000825 
0.01339301459296385 
0.03531903407082918 
0.01096159067048965 
0.01339301459296385 
0.01339301459296385 
0.01793243217177992 
0.2048830400001190 
0.01750781695406230 
0.01793243217177992 
0.01793243217177992 
0.01833933493195774 
0.008089994072745006 
0.002668639487680652 
0.008089994072745006 
0.0006592742245072601 
0.0006592742245072601 
0.0006592742245072601 
0.002077750576872974 
0.002077750576872974 
0.003164423996179312 
0.003164423996179312 
0.003164423996179312 
0.003164423996179312 
0.003164423996179312 
0.003164423996179312 
0.0007108374859301924 
0.0007108374859301924 
0.0007108374859301924 
0.0007108374859301924 
0.0007108374859301924 
0.0007108374859301924 
0.0007108374859301924 
0.0003198716845478579 
0.0003198716845478579 
9.168198164029456e-05 
0.0001140948514537817 
0.0001140948514537817 
0.0001140948514537817 
0.0001140948514537817 
0.0001140948514537817 
0.0001140948514537817 
0.1968127461304030 
0.007509757028070823 
0.002814586813926829 
0.007509757028070823 
0.007509757028070823 
0.007509757028070823 
0.007509757028070823 
0.007509757028070823 
0.1743916193992473 
0.1743916193992473 
0.1743916193992473 
0.1743916193992473 
0.2003972403224904 
0.2003972403224904 
0.2003972403224904 
0.1001986201612452 
0.4272856470223056 
0.006825551486917370 
0.2003972403224904 
0.2003972403224904 
0.1001986201612452 
0.06216310655360876 
0.06216310655360876 
0.06216310655360876 
0.03108155327680438 
0.4534171608731056 
0.06216310655360876 
0.06216310655360876 
0.03108155327680438 
0.03108155327680438 
0.07979076834950664 
0.1001986201612452 
0.1001986201612452 
0.03108155327680438 
0.03108155327680438 
0.03108155327680438 
0.0003369149577684970 
0.0005216822242931128 
0.0003369149577684970 
0.0001139976776873465 
0.0005216822242931128 
0.0005495845018017125 
0.0001139916568245808 
0.0005495845018017125 
0.02035310260561511 
0.0001089256232565697 
0.02035310260561511 
0.002970978698684689 
0.005304906706982051 
0.0008115903019516524 
0.0001116505624522198 
0.0008115903019516524 
0.0007346949678445269 
0.0007346949678445269 
0.0001137901240525531 
0.0007346949678445269 
0.0007346949678445269 
0.002977584089338853 
0.03460020545314278 
0.002977584089338853 
0.002977584089338853 
0.002977584089338853 
0.01285372995805920 
0.01285372995805920 
0.01285372995805920 
0.01285372995805920 
0.01285372995805920 
0.01285372995805920 
0.01285372995805920 
0.02671812344022048 
0.02671812344022048 
0.1985061141170283 
0.02671812344022048 
0.02671812344022048 
0.02671812344022048 
0.02671812344022048 
0.02671812344022048 
0.0001141416048699044 
0.0001141416048699044 
0.0001141416048699044 
0.0001141416048699044 
0.0001141416048699044 
0.0001141416048699044 
0.0001141416048699044 
0.0001141416048699044 
0.0001141416048699044 
0.0001141416048699044 
0.002938194614402517 
0.0005391285634528650 
0.003252300313080145 
0.004679631164788956 
0.003252300313080145 
0.003252300313080145 
0.001539326468278912 
0.009286632022202373 
0.003140304696510045 
0.0007086013296713166 
0.0007086013296713166 
0.002072459569403036 
0.0007086013296713166 
0.0007086013296713166 
0.0007086013296713166 
0.002072459569403036 
0.005931437043184599 
0.005931437043184599 
0.002787595536531531 
0.002787595536531531 
0.001357014858716001 
0.001357014858716001 
0.0006471004006039651 
0.0006471004006039651 
0.0006471004006039651 
0.003806695411801770 
0.003143841506653068 
0.003143841506653068 
0.003143841506653068 
0.001278069942364000 
0.0007099144581120361 
0.0007099144581120361 
0.0007099144581120361 
0.0007099144581120361 
0.1658835081634054 
9.365318826644700e-05 
0.005623834201106366 
9.365318826644700e-05 
9.365318826644700e-05 
9.365318826644705e-05 
9.365318826644705e-05 
9.365318826644705e-05 
0.01759379254271608 
0.002652456920157747 
0.002652456920157747 
0.002652456920157747 
0.05666099560708636 
0.1719720792624153 
0.0006558611653385398 
0.01481519557360961 
0.0005624647401876703 
0.0006558611653385398 
0.0006558611653385398 
0.002690528554812758 
0.002690528554812758 
0.002690528554812758 
0.002690528554812758 
0.01715824619085831 
0.01715824619085831 
0.01425273083342194 
0.01715824619085831 
0.01715824619085831 
0.1693731890740476 
0.1743652278586168 
0.1743652278586168 
0.1743652278586168 
0.1693731890740476 
0.1743652278586168 
0.1743652278586168 
0.1743652278586168 
0.04778733665241838 
0.04778733665241838 
0.04788880602748728 
0.04778733665241838 
0.04778733665241838 
0.04778733665241838 
0.04788880602748728 
9.354234960296716e-05 
0.0008768970321484787 
0.0009259785763133009 
0.0002182262038201193 
0.0001138055049194111 
0.0009259785763133009 
0.04460324899047946 
0.0007630915272290675 
0.03254205846917011 
0.02908359621024001 
0.01454179810512001 
0.005228720320592793 
0.02908359621024001 
0.01454179810512001 
0.04048832736420454 
0.02035312816472772 
0.001160204873185857 
0.04048832736420454 
0.02024415038184600 
0.02035312816472772 
0.01454179810512001 
0.01454179810512001 
0.02024417698235854 
0.003164423996179312 
0.003164423996179312 
0.003164423996179312 
0.003164423996179312 
0.003164423996179312 
0.003164423996179312 
0.01509230359653773 
0.01509230359653773 
0.01509230359653773 
0.02669069918958312 
0.01509230359653773 
0.01509230359653773 
0.01509230359653773 
0.01509230359653773 
0.03025971820223877 
0.03025971820223877 
0.03025971820223877 
0.03025971820223877 
0.03025971820223877 
0.03025971820223877 
0.0002264081677053347 
0.0002264081677053347 
0.0001140169887270665 
0.01399577920194058 
0.0001123911789782681 
0.0001123911789782681 
0.0001137991103982847 
0.0002263275270490599 
0.009377467292009013 
0.0002263275270490599 
0.0001128134219515186 
0.0002209035903094042 
0.0001135141050975413 
0.0008831633591875628 
0.05434052626709789 
0.002653372772246642 
0.002653372772246642 
0.0006592742245072601 
0.0006592742245072601 
0.0006592742245072601 
0.1004036757709564 
0.1004036757709564 
0.002431241679756925 
0.1004036757709564 
0.09804405677744524 
0.005516400729259539 
0.002359618993511190 
0.0007096856219877590 
0.0007096856219877590 
0.001414828214521443 
0.0007096856219877590 
0.0007096856219877590 
0.0007096856219877590 
0.001414828214521443 
0.0005361336209645233 
0.0005361336209645233 
0.0001417153721851195 
0.0005361336209645233 
0.0005361336209645233 
0.0005361336209645233 
0.0005361336209645233 
0.0001417153721851195 
0.0005361336209645233 
0.0005361336209645233 
0.01363681941001718 
0.01224276032117018 
0.009264653870057494 
0.006166731670573290 
0.003052195137801405 
0.01707665239546637 
0.01641266280193804 
0.01707665239546637 
0.01641266280193804 
0.0006654137525791118 
0.003042094302225896 
0.0006663427242056402 
0.003062274261672308 
0.003062274261672308 
0.01802887140683248 
0.01746573922535073 
0.01508090632515328 
0.01508090632515328 
0.03038702263531665 
0.03038702263531665 
0.03117513813523196 
0.04100992227900552 
0.03038702263531665 
0.03038702263531665 
0.03048525940023516 
0.03048525940023516 
0.0001141416048699044 
0.0001141416048699044 
0.0001141416048699044 
0.0001141416048699044 
0.0001141416048699044 
0.002978106451112686 
0.002978106451112686 
0.002978106451112686 
0.03688769629094928 
0.0007297858449304325 
0.0006639895935283369 
0.0006639895935283369 
0.0007297858449304325 
0.0002122958306272203 
0.03200435636972501 
0.005754322904949653 
0.03200435636972501 
0.01567567021879675 
0.01567567021879675 
0.2546157195779690 
0.2550375223624872 
0.1273078597889845 
0.1273078597889845 
0.009694956934885993 
0.2546157195779690 
0.1273078597889845 
0.1273078597889845 
0.2527506848778569 
0.2527506848778569 
0.03162262136380392 
0.2527506848778569 
0.03162262136380392 
0.03162262136380392 
0.03162262136380392 
0.01567567021879675 
0.01567567021879675 
0.1273078597889845 
0.1273078597889845 
0.1273078597889845 
0.1273078597889845 
0.2211280635140530 
0.2211280635140530 
0.2211280635140530 
0.2211280635140530 
0.2211280635140530 
0.2211280635140530 
0.2277260497527550 
0.2277260497527550 
0.2277260497527550 
0.2277260497527550 
0.2277260497527550 
0.2277260497527550 
0.2277260497527550 
0.2277260497527550 
0.05168715349485125 
0.05168715349485125 
0.05168715349485125 
0.05168715349485125 
0.05168715349485125 
9.339642515086946e-05 
0.008566037776522258 
0.001512340021788845 
0.008566037776522258 
0.1501636592415031 
0.1501636592415031 
0.005343794674584190 
0.1501636592415031 
0.1501636592415031 
0.2259747969847732 
0.2259747969847732 
0.2259747969847732 
0.2259747969847732 
0.2259747969847732 
0.2259747969847732 
0.2259747969847732 
0.2259747969847732 
0.2267227951681853 
0.2430065199765681 
0.2267227951681853 
0.2267227951681853 
0.2267227951681853 
0.2267227951681853 
0.2267227951681853 
0.2267227951681853 
0.2267227951681853 
0.2278886499786490 
0.2278886499786490 
0.2278886499786490 
0.2278886499786490 
0.2278886499786490 
0.2278886499786490 
0.2278886499786490 
0.2278886499786490 
0.2278886499786490 
0.05194340088809459 
0.05194340088809459 
0.05194340088809459 
0.05194340088809459 
0.05194340088809459 
0.05194340088809459 
0.05194340088809459 
0.05194340088809459 
0.002823407818517126 
0.002823407818517126 
0.002823407818517126 
0.002823407818517126 
0.002823407818517126 
0.0006659469442511644 
0.0006659469442511644 
0.0006659469442511644 
0.0006659469442511644 
0.0006659469442511644 
0.0006659469442511644 
0.4491301928060698 
0.4491301928060698 
0.005792353425498519 
0.4491301928060698 
1.879264421580443e-05 
0.2691212170125685 
0.06231929774558422 
0.4136969663405708 
0.4136969663405708 
0.2704275146496923 
0.01086019663112469 
0.4136969663405708 
0.01273249053852358 
0.01309953374540934 
0.1407641549825541 
0.1386614344452886 
0.2679662195850504 
0.2679662195850504 
0.2627236455952253 
0.2679662195850504 
0.1429835073978908 
0.1429835073978908 
0.1429835073978908 
0.08003590457831364 
0.003235190822913315 
0.0008232554772832801 
0.0006939159468567107 
0.0002100799086360802 
0.0006939159468567107 
0.003235190822913315 
0.0008232554772832801 
0.01569434936270981 
0.01569434936270981 
0.004716693922284118 
0.01569434936270981 
0.04355151291048068 
0.04355151291048068 
0.02116994518894414 
0.04355151291048068 
0.04355151291048068 
0.07646080189157195 
0.07421954119370958 
0.01669458873738683 
0.01622639938226137 
0.01669458873738683 
0.04902253731449772 
0.04902253731449772 
0.09486980989292833 
0.09486980989292833 
0.09486980989292833 
0.09486980989292833 
0.04177765763063306 
0.04177765763063306 
0.04177765763063306 
0.04177765763063306 
0.04177765763063306 
0.04902253731449772 
0.04902253731449772 
0.006040443955740122 
0.006040443955740122 
0.006040443955740122 
0.07646080189157195 
0.07421954119370958 
0.01970587706233981 
0.01617740314497185 
0.01664415512234222 
0.0001089777828817256 
0.0001089777828817256 
0.0001089777828817256 
0.009601760926014058 
0.0001389422443572760 
0.009601760926014058 
0.0001389422443572760 
0.0001389422443572760 
0.002047474463530678 
0.002047474463530678 
0.002047474463530678 
0.002047474463530678 
0.009504858469524521 
0.0004143981170708466 
0.0004143981170708466 
0.009504858469524521 
0.0004143981170708466 
0.0004143981170708466 
0.0004143981170708466 
0.0001389422443572760 
0.0001389422443572760 
0.0001389422443572760 
0.002643120677182513 
0.002559437973634687 
0.002559437973634687 
0.008262559195701664 
0.008262559195701664 
0.008262559195701664 
0.008262559195701664 
0.008262559195701664 
0.01628372480838285 
0.01638536252207503 
0.01638536252207503 
0.01628372480838285 
0.01628372480838285 
0.01638536252207503 
0.01638536252207503 
0.004077512319157210 
0.002038756159578605 
0.004077512319157210 
0.002038756159578605 
0.0008279011567520111 
0.0004139505783760056 
0.0008279011567520111 
0.0004139505783760056 
0.0004139505783760056 
0.002038756159578605 
0.002038756159578605 
0.0004139505783760056 
0.0004139505783760056 
0.0004139505783760056 
0.0001389422443572760 
0.0001389422443572760 
0.0001389422443572760 
0.0001389422443572760 
0.0001389422443572760 
0.0001389422443572760 
0.0001389422443572760 
0.0001389422443572760 
0.0001389422443572760 
0.0001389422443572760 
0.0001389422443572760 
0.0001389422443572760 
0.0001120867222777390 
0.0001120867222777390 
0.0001120867222777390 
0.0001120867222777390 
0.01347526162747060 
0.01212491378232116 
0.005507868054195480 
0.01212491378232116 
0.01212491378232116 
0.003034983369478445 
0.04094791182765737 
0.04094791182765737 
0.001130583413704264 
0.04094791182765737 
0.04094791182765737 
0.0006089200771356572 
0.001130583413704264 
0.006047090240358089 
0.006047090240358089 
0.02645560372755940 
0.02645560372755940 
0.02645560372755940 
0.02645560372755940 
0.2580448328871065 
0.2580448328871065 
0.2412239618516917 
0.2412239618516917 
0.1325726603406744 
0.2580448328871065 
0.2412239618516917 
0.2412239618516917 
0.1200665282327609 
0.1601919922356198 
0.1601919922356198 
0.1601919922356198 
0.2805596008917187 
0.2828338154227852 
0.1601919922356198 
0.1601919922356198 
0.1432445400251299 
0.2805596008917187 
0.02633864715502438 
0.02633864715502438 
0.07353895736236828 
0.07405718089713756 
0.02633864715502438 
0.02633864715502438 
0.07353895736236828 
0.07405718089713756 
0.1211574336189308 
0.1211574336189308 
0.01694745221048996 
0.01694745221048996 
0.01694745221048996 
0.003042840172484626 
0.003042840172484626 
0.01388338802296231 
0.01388338802296231 
0.01388338802296231 
0.01682087103541474 
0.01692286350952673 
0.01682087103541474 
0.01682087103541474 
0.01692286350952673 
0.02968624263852901 
0.003045449085453001 
0.003045449085453001 
0.01475791899122228 
0.003045449085453001 
0.003045449085453001 
0.04754424274421631 
0.01478201123112030 
0.01478201123112030 
0.01478201123112030 
0.01730518451791949 
0.01478201123112030 
0.01478201123112030 
0.01478201123112030 
0.03064995141233512 
0.03064995141233512 
0.03064995141233512 
0.03064995141233512 
0.03064995141233512 
0.03064995141233512 
0.03064995141233512 
0.03064995141233512 
0.01479013319583962 
0.006032899710889753 
0.01171246990576928 
0.002971177770892161 
0.003197181432607740 
0.001371450434443183 
0.002523173286799190 
0.0006639473140547495 
0.001371450434443183 
0.003077663290070342 
0.003077663290070342 
0.003077663290070342 
0.003077663290070342 
0.0006740081458085503 
0.0006740081458085503 
0.0006740081458085503 
0.0006740081458085503 
0.002815464459955040 
0.0005528897772175472 
0.002980785778657989 
0.002980785778657989 
0.0006628539051487015 
0.0006628539051487015 
0.002945041896264094 
0.0006434822903781916 
0.0001137991103982847 
0.009412799603244218 
0.009412799603244218 
0.009412799603244218 
0.4699406723245649 
0.001919687943653466 
0.009412799603244218 
0.009412799603244218 
0.01402783694151056 
0.01402783694151056 
0.01402783694151056 
0.0004944157871190334 
0.01402783694151056 
0.01402783694151056 
0.01402783694151056 
0.0007109686879428394 
0.001421937375885679 
0.0001136076827969090 
0.0007109686879428394 
0.001421937375885679 
0.01656719099895091 
0.01656719099895091 
0.01656719099895091 
0.002966509380968261 
0.01656719099895091 
0.01656719099895091 
0.02217489681440862 
0.02217489681440862 
0.02217489681440862 
0.0006257658594610793 
0.02217489681440862 
0.02217489681440862 
0.02217489681440862 
0.0001137991103982847 
0.009430597472603072 
0.003053327546373432 
0.009430597472603072 
0.003053327546373432 
0.003053327546373432 
0.002074769591728685 
0.002074769591728685 
0.0006586708283283592 
0.0001050503672826981 
0.2344987128198370 
8.522353470874892e-05 
8.522353470874892e-05 
0.003125274084240600 
0.003125274084240600 
0.003125274084240600 
0.003125274084240600 
0.0007085956430118929 
0.0007085956430118929 
0.0007085956430118929 
0.0007085956430118929 
0.0007085956430118929 
0.003061721939997592 
0.003061721939997592 
0.0007075031203884330 
0.0007075031203884330 
0.0007075031203884330 
0.2572790574205192 
0.2572790574205192 
0.4174942098615934 
0.005128264730462285 
0.2572790574205192 
0.2289362416171200 
0.3897714462389869 
0.3897714462389869 
0.3589049485321272 
0.3589049485321272 
0.008928243830501045 
0.3897714462389869 
0.1777203444280127 
0.3589049485321272 
0.5192995968648023 
0.5192995968648023 
0.5192995968648023 
0.2087507849555857 
0.2687502072460110 
0.04457821891284883 
0.006265490632513530 
0.006265490632513530 
0.004696094048004143 
0.004696094048004143 
0.004696094048004143 
0.006265490632513530 
0.006265490632513530 
0.07917531046687214 
0.07917531046687214 
0.07917531046687214 
0.07917531046687214 
0.1541992935719965 
0.1541992935719965 
0.1541992935719965 
0.1541992935719965 
0.1541992935719965 
0.1541992935719965 
0.04424307793028941 
0.04424307793028941 
0.04424307793028941 
0.04424307793028941 
0.04424307793028941 
0.04424307793028941 
0.04424307793028941 
0.01388264853528400 
0.01093415620275283 
0.1314461530244057 
0.1281796972960980 
0.1281796972960980 
0.1281796972960980 
0.1688556504451337 
0.1563495183372202 
0.1518324540158545 
0.1563495183372202 
0.1563495183372202 
0.1518324540158545 
0.3159405517372289 
0.1799289104028728 
0.1799289104028728 
0.1799289104028728 
0.1799289104028728 
0.1799289104028728 
0.1799289104028728 
0.1799289104028728 
0.08761059011152565 
0.04085989252748226 
0.04085989252748226 
0.04085989252748226 
0.04085989252748226 
0.04085989252748226 
0.04085989252748226 
0.04085989252748226 
0.02111186230445327 
0.0001025500645476493 
0.0001025500645476493 
0.0001028938556770877 
0.0001028938556770877 
0.0001028938556770877 
0.002919716280640899 
0.002919716280640899 
0.002919716280640899 
0.002919716280640899 
0.01901408353606457 
0.0006857515906800181 
0.0006857515906800181 
0.01901408353606457 
0.0006857515906800181 
0.0006857515906800181 
0.0006857515906800181 
0.002919716280640899 
0.002919716280640899 
0.002919716280640899 
0.002919716280640899 
0.01492832364730673 
0.01492832364730673 
0.01492832364730673 
0.01492832364730673 
0.01492832364730673 
0.03023905822629682 
0.03023905822629682 
0.03023905822629682 
0.03023905822629682 
0.03023905822629682 
0.03023905822629682 
0.03023905822629682 
0.002894041434311534 
0.002894041434311534 
0.002894041434311534 
0.0006751271724738603 
0.0006751271724738603 
0.0006751271724738603 
0.0001023326504341751 
9.082891362214443e-05 
0.0001028938556770877 
0.0001028938556770877 
0.0001028938556770877 
0.002876213836907886 
0.002876213836907886 
0.0006838366041694448 
0.001366555879228505 
0.0006838366041694448 
0.0006838366041694448 
0.005847055353872216 
0.002867135260207948 
0.001391349047608311 
0.0006827192750590602 
0.001391349047608311 
0.002919716280640899 
0.002919716280640899 
0.002919716280640899 
0.002919716280640899 
0.0006821821955230981 
0.0006821821955230981 
0.0006821821955230981 
0.0006821821955230981 
0.006252713793586627 
0.003012376229916896 
0.0002069964085442414 
0.002910653965646755 
0.002910653965646755 
0.01561747867341069 
0.0006761430508523582 
0.0006761430508523582 
0.0006761430508523582 
0.0006761430508523582 
9.362077155695630e-05 
0.002962107087702477 
0.0006129945028123298 
0.002905515357436363 
0.004992038784569140 
8.496760130725399e-05 
0.005504946729667624 
0.0009896133272888720 
0.0001141416048699044 
0.0001141416048699044 
0.0001141416048699044 
0.0001141416048699044 
0.0001141416048699044 
0.006256183184765398 
0.003073750479754730 
0.006256183184765398 
0.003073750479754730 
0.003073750479754730 
0.001368287014295619 
0.0006596572417463678 
0.001368287014295619 
0.0006596572417463678 
0.0006596572417463678 
9.030379665683332e-05 
0.002979920093664268 
0.002979920093664268 
0.0007086297725492514 
0.0007086297725492514 
0.0007086297725492514 
0.0001122088146895661 
0.005567101733875499 
0.005567101733875499 
0.005567101733875499 
0.001322177683427766 
0.001322177683427766 
0.001322177683427766 
0.002799119921057787 
0.002799119921057787 
0.0006644283512309459 
0.0006644283512309459 
0.0006644283512309459 
0.0001141416048699044 
0.0001141416048699044 
0.0001141416048699044 
0.0001141416048699044 
0.0001141416048699044 
0.0002280395283236375 
0.0002280395283236375 
0.0001140227750000884 
0.0001140167533235491 
0.0001141416048699044 
0.0001141416048699044 
0.0001141416048699044 
0.0001141416048699044 
0.0001141416048699044 
0.0002280395283236375 
0.0002280395283236375 
0.0001140227750000884 
0.0001140167533235491 
0.003156781735748350 
0.003156781735748350 
0.003156781735748350 
0.003156781735748350 
0.003156781735748350 
0.0007051425925336843 
0.006876833019984929 
0.0007051425925336843 
0.0007051425925336843 
0.0007051425925336843 
0.006329458979214793 
0.006329458979214793 
0.006329458979214793 
0.006329458979214793 
0.0001106894229764745 
0.003114536532771885 
0.001394059088846998 
0.001394059088846998 
0.001394059088846998 
0.0006965435733209185 
0.003104233023466434 
0.0006975155155260792 
0.02696380172574183 
0.02696380172574183 
0.04419778235117879 
0.02696380172574183 
0.02696380172574183 
0.01892911919587356 
0.08302449097629958 
0.08302449097629958 
0.06579051035086261 
0.08302449097629958 
0.08302449097629958 
0.05775582782099435 
0.05775582782099435 
0.4497528133594651 
0.4497528133594651 
0.4685708824459743 
0.2983638150506365 
0.4497528133594651 
0.2730951518953312 
0.2730951518953312 
0.002858618671694504 
0.08128185921963658 
0.5000535226490617 
0.5097298078603708 
0.4814324164650130 
0.3047747550008791 
0.3047747550008791 
0.07449839878458688 
0.5865239349530449 
0.5244747216969445 
0.3291959540487620 
0.09654831430089880 
0.5788653717775070 
0.09727592645525178 
0.1305244706969669 
0.1676423475179826 
0.04464210032652725 
0.1699996229418076 
0.04307606843872072 
0.1970471282807609 
0.05552911815808754 
0.1210535029645368 
0.06150012359572768 
0.06150012359572768 
0.06490560573001658 
0.06490560573001658 
0.06490560573001658 
0.06490560573001658 
0.07661625153195946 
0.07661625153195946 
0.2008133391517828 
0.07661625153195946 
0.07661625153195946 
0.07661625153195946 
0.3007293483060778 
0.02546940119041836 
0.02546940119041836 
0.3293546804656415 
0.05468678608380404 
0.02546940119041836 
0.02546940119041836 
0.02546940119041836 
0.2051575928458181 
0.05468678608380404 
0.05468678608380404 
0.06150012359572768 
0.06150012359572768 
0.06490560573001658 
0.06490560573001658 
0.06490560573001658 
0.06490560573001658 
0.07289704421752120 
0.07289704421752120 
0.07289704421752120 
0.07289704421752120 
0.07289704421752120 
0.07289704421752120 
0.07289704421752120 
0.1241970876198234 
0.1241970876198234 
0.1241970876198234 
0.1241970876198234 
0.1241970876198234 
0.1241970876198234 
0.1241970876198234 
0.1241970876198234 
0.1241970876198234 
0.02921738489338568 
0.02921738489338568 
0.06721731822149217 
0.02921738489338568 
0.02921738489338568 
0.02921738489338568 
0.02921738489338568 
0.02921738489338568 
0.02921738489338568 
0.05843020330703327 
0.05843020330703327 
0.06263400869830961 
0.06263400869830961 
0.06263400869830961 
0.06361013688080694 
0.06264801680605553 
0.06361013688080694 
0.08250962196599927 
0.07958726418200260 
0.08250962196599927 
0.1399291213768087 
0.1399291213768087 
0.008034682529868274 
0.02526866315530524 
0.02526866315530524 
0.1766576614641339 
0.1766576614641339 
0.1766576614641339 
0.1766576614641339 
0.1952787676481826 
0.1952787676481826 
0.1952787676481826 
0.1952787676481826 
0.1952787676481826 
0.1952787676481826 
0.2302740712786352 
0.2049550528594917 
0.2049550528594917 
0.2049550528594917 
0.2049550528594917 
0.2049550528594917 
0.3084564719349007 
0.2573279809042829 
0.08577599363476097 
0.2573279809042829 
0.2573279809042829 
0.2573279809042829 
0.08577599363476097 
0.2942831443973982 
0.1855321294623856 
0.1855321294623856 
0.1583939142496708 
0.1583939142496708 
0.1855321294623856 
0.1855321294623856 
0.1583939142496708 
0.1583939142496708 
0.03064995141233512 
0.03064995141233512 
0.03064995141233512 
0.03064995141233512 
0.03064995141233512 
0.03064995141233512 
0.03064995141233512 
0.03064995141233512 
0.08577599363476097 
0.08577599363476097 
0.01356910760635741 
0.01356910760635741 
0.01356910760635741 
0.08577599363476097 
0.08577599363476097 
0.01356910760635741 
0.01356910760635741 
0.01356910760635741 
0.0001969629024605373 
6.537352580878109e-05 
6.579312524966050e-05 
6.579625140209561e-05 
0.003806865693502402 
0.003139737208010100 
0.003806865693502402 
0.003139737208010100 
0.003139737208010100 
0.0006999397394994326 
0.0006999397394994326 
0.0006999397394994326 
0.0001131318220846796 
0.0001131318220846796 
0.0001131318220846796 
0.0001014693750689041 
0.0001131318220846796 
0.0001131318220846796 
0.0001131318220846796 
0.0001131318220846796 
0.0001131318220846796 
0.0001131318220846796 
0.0001131318220846796 
0.0001131318220846796 
0.0001131318220846796 
0.0001131318220846796 
0.0001131318220846796 
0.0001131318220846796 
0.03603101641809469 
0.0001060952686826698 
0.02467997122033945 
0.0001060952686826698 
0.0001060952686826698 
0.0001019924741119938 
0.0001060952686826698 
0.0001060952686826698 
0.0001060952686826698 
0.002990434318444210 
0.005980868636888421 
0.002990434318444210 
0.002990434318444210 
0.1567986439792858 
0.02028588051134552 
0.0005973610051459304 
0.001303419532232701 
0.0004496126233005018 
0.01422358484906246 
0.01422358484906246 
0.01422358484906246 
0.01422358484906246 
0.1427234671247542 
0.1427234671247542 
0.1427234671247542 
0.1427234671247542 
0.1427234671247542 
0.1427234671247542 
0.1796562609497954 
0.04730053701498641 
0.04730053701498641 
0.04730053701498641 
0.04730053701498641 
0.04730053701498641 
0.04730053701498641 
0.04730053701498641 
0.0001060952686826698 
0.0001060952686826698 
0.0001060952686826698 
0.0001060952686826698 
0.0001060952686826698 
0.0001060952686826698 
0.002990434318444210 
0.002990434318444210 
0.002990434318444210 
0.0007109686879428394 
0.0005973610051459304 
0.0007109686879428394 
0.0001060952686826698 
0.0001060952686826698 
0.0001060952686826698 
0.002642563444971907 
0.002642563444971907 
0.002642563444971907 
0.01250613210791350 
0.01020995189726131 
0.01250613210791350 
0.01250613210791350 
0.1360116413343561 
0.1323557239348090 
0.1360116413343561 
0.1360116413343561 
0.04675069758404340 
0.04675069758404340 
0.04675069758404340 
0.005920130129542086 
0.002947965081679198 
0.002947965081679198 
0.001400037702879195 
0.0005800974734690228 
0.0006898787349968059 
0.001400037702879195 
0.005920657380394056 
0.005920657380394056 
0.002972165047862888 
0.001334051251218182 
0.001122569315439613 
0.0007101589678823888 
0.002948492332531168 
0.0006238922833357930 
0.0006238922833357930 
0.002274214531066500 
0.002274214531066500 
0.002274214531066500 
0.0005182235347692831 
0.0005182235347692831 
0.0005182235347692831 
0.0001052741442741008 
0.0001136076827969090 
0.0001016377136921777 
0.0001016377136921777 
0.02553797573637045 
0.02553797573637045 
0.02553797573637045 
0.02553797573637045 
0.0001007172292457546 
0.01408871321414156 
0.01408871321414156 
0.08903182713421634 
0.08903182713421634 
0.05315838152371143 
0.01071643637050832 
0.08903182713421634 
0.08903182713421634 
0.05315838152371143 
0.01071643637050832 
0.4256004216388777 
0.4256004216388777 
0.4256004216388777 
0.1939981593164762 
0.01071643637050832 
0.01071643637050832 
0.01071643637050832 
0.01071643637050832 
0.009862430154471713 
0.007401612675014107 
0.007401612675014107 
0.02100907241218647 
0.02100907241218647 
0.4100195456493208 
0.1935716888355731 
0.02775220930359892 
0.005613416919057392 
0.1882521601703063 
0.1882521601703063 
0.01373465322596339 
0.1882521601703063 
0.06424631733879359 
0.004877678335619314 
0.05279746528646557 
0.005735128373925735 
0.005735128373925735 
0.02213879238454153 
0.02213879238454153 
0.02213879238454153 
0.2099609591564511 
0.1673559449836080 
0.1745175069443429 
0.2390223503071974 
0.1636503915272821 
0.1879044753512633 
0.6950417407116966 
0.3280457371220203 
0.006378634945723614 
0.003144192829620793 
0.003144192829620793 
0.006378634945723614 
0.003144192829620793 
0.003144192829620793 
0.01563241529039915 
0.0006910796678408178 
0.0006910796678408178 
0.01563241529039915 
0.0006910796678408178 
0.0006910796678408178 
0.0006910796678408178 
9.937869670719138e-05 
0.003135063419395630 
0.003135063419395630 
0.003135063419395630 
0.01494133562255833 
0.01494133562255833 
0.01494133562255833 
0.1713162180970768 
0.1713162180970768 
0.1713162180970768 
0.1713162180970768 
0.1713162180970768 
0.1713162180970768 
0.1713162180970768 
0.1717879906768078 
0.1717879906768078 
0.1717879906768078 
0.1717879906768078 
0.1717879906768078 
0.1717879906768078 
0.1717879906768078 
0.1717879906768078 
0.03064995141233512 
0.03064995141233512 
0.03064995141233512 
0.03064995141233512 
0.03064995141233512 
0.03064995141233512 
0.03064995141233512 
0.03064995141233512 
0.0005681554842519641 
0.0001138458713559292 
0.0001133375208926048 
0.0001139396580333803 
0.0001139396580333803 
0.0001139396580333803 
0.0001131114258263173 
0.0001987120832363639 
0.0001139210081437327 
0.0001987120832363639 
0.0002187084517509052 
0.0001141177906865351 
0.0002187084517509052 
0.0001141177906865351 
0.0001141177906865351 
0.0001045906610643701 
0.0005355262646134020 
0.001071052529226804 
0.0001415337653608404 
0.0005355262646134020 
0.001071052529226804 
0.002995772653743180 
0.002995772653743180 
0.02288220774587343 
0.002995772653743180 
0.002995772653743180 
0.07138019357093062 
0.07138019357093062 
0.0006209048437919737 
0.005611759385296209 
0.005611759385296209 
0.005611759385296209 
0.02385487588964722 
0.4506178806559683 
0.03932812249101868 
0.008720221378459738 
0.008720221378459738 
0.008720221378459738 
0.02625003346477535 
0.2449207626430831 
0.002346336878914764 
0.002346336878914764 
0.002346336878914764 
0.007053697754733413 
0.1448198645669190 
0.002887656956946262 
0.007995285626807330 
0.002995772653743180 
0.002995772653743180 
0.002995772653743180 
0.002995772653743180 
0.01360068161798265 
0.02154913095494754 
0.0001061723978581785 
0.0001061723978581785 
0.0001061723978581785 
0.0001061723978581785 
0.0001061723978581785 
0.0001061723978581785 
0.002296180210652192 
0.003655917399547144 
0.0005361336209645233 
0.0005361336209645233 
0.0001417153721851195 
0.0005361336209645233 
0.0005361336209645233 
0.0005355262646134020 
0.0001415337653608404 
0.0005355262646134020 
0.003164423996179312 
0.003164423996179312 
0.003164423996179312 
0.003164423996179312 
0.003164423996179312 
0.003164423996179312 
0.01234195242104137 
0.01234195242104137 
0.01234195242104137 
0.01234195242104137 
0.01234195242104137 
0.01234195242104137 
0.01234195242104137 
0.02489575077258736 
0.02489575077258736 
0.02489575077258736 
0.02489575077258736 
0.02489575077258736 
0.02489575077258736 
0.03823724972413488 
0.0005361336209645233 
0.0005361336209645233 
0.0001417153721851195 
0.0005361336209645233 
0.0005361336209645233 
8.481997216417008e-05 
0.0004218027845181067 
8.481997216417008e-05 
8.481997216417008e-05 
8.432286911885247e-05 
8.371742550096083e-05 
8.415144264149215e-05 
8.479107509263119e-05 
0.0002231034810298947 
0.01325597903174281 
0.02531901841914350 
0.01325597903174281 
0.001846866407492515 
0.01800605000785295 
0.05112849103061781 
0.01800605000785295 
0.0003670432068857591 
0.002102720537265488 
0.005242573989825039 
0.04022447646286545 
0.04022447646286545 
0.01793652951288586 
0.002411935345630036 
0.0004838360382206305 
0.002411935345630036 
0.01097765544042569 
0.02228794694997959 
0.002241260697862367 
0.0004681893551254583 
0.002241260697862367 
0.0004667519773703699 
0.01206303938740069 
0.002419551621800809 
0.01206303938740069 
0.002419551621800809 
0.03312244102276486 
0.01082862490202492 
0.01082862490202492 
0.03312244102276486 
0.01082862490202492 
0.01082862490202492 
0.06852653847214718 
0.02284217949071573 
0.02284217949071573 
0.06852653847214718 
0.02284217949071573 
0.02284217949071573 
0.02284217949071573 
0.002384832900197449 
0.01052466287877036 
0.01052466287877036 
0.01052466287877036 
0.02284217949071573 
0.02284217949071573 
0.02284217949071573 
0.02284217949071573 
0.02284217949071573 
0.002419551621800809 
0.002419551621800809 
0.0004696562136443892 
0.002419551621800809 
0.002419551621800809 
0.01082862490202492 
0.01082862490202492 
0.01082862490202492 
0.01082862490202492 
0.02284217949071573 
0.02284217949071573 
0.02284217949071573 
0.02284217949071573 
0.02284217949071573 
0.002419551621800809 
0.002419551621800809 
0.0004708721263002752 
0.0004708721263002752 
0.0004708721263002752 
0.003019332690494938 
0.003019332690494938 
0.005221780136237507 
0.003019332690494938 
0.003019332690494938 
0.01578295526248224 
0.01523793712815527 
0.01523793712815527 
0.01523793712815527 
0.01578295526248224 
0.01523793712815527 
0.01523793712815527 
0.01523793712815527 
0.1649865270158094 
0.1649865270158094 
0.1649865270158094 
0.1649865270158094 
0.1610998814275864 
0.1610998814275864 
0.002202447445742569 
0.0005450181343269724 
0.0005450181343269724 
0.0005450181343269724 
0.002130968981061380 
0.002130968981061380 
0.04260501417284310 
0.002130968981061380 
0.002130968981061380 
0.002130968981061380 
0.07537195877991525 
0.0008440840695941937 
0.0008440840695941937 
0.001553479431441839 
0.001553479431441839 
0.001553479431441839 
0.001553479431441839 
0.0003944182487794039 
0.001550993169210189 
0.003101986338420379 
0.001550993169210189 
0.001550993169210189 
0.0003939924992525616 
0.001553479431441839 
0.001553479431441839 
0.001553479431441839 
0.001553479431441839 
0.0003944182487794039 
8.452292710620438e-05 
8.452292710620438e-05 
8.452292710620438e-05 
0.001550993169210189 
0.001550993169210189 
0.001550993169210189 
0.0003939924992525616 
0.0001067770949997759 
0.0001067770949997759 
0.0001067770949997759 
0.0001067770949997759 
0.0001067770949997759 
0.0001067770949997759 
8.452292710620438e-05 
8.452292710620438e-05 
8.452292710620438e-05 
0.0001067770949997759 
0.0001067770949997759 
0.0001067770949997759 
0.0001067770949997759 
0.0001067770949997759 
0.0001067770949997759 
0.0001067770949997759 
0.0001067770949997759 
0.0001067770949997759 
0.001553479431441839 
0.001553479431441839 
0.001553479431441839 
0.001553479431441839 
0.0003944182487794039 
0.002421661853504333 
0.002421661853504333 
0.002421661853504333 
0.009083084070196660 
0.009083084070196660 
0.009083084070196660 
0.009083084070196660 
0.01334149895154752 
0.01334149895154752 
0.01334149895154752 
0.01334149895154752 
0.001553479431441839 
0.001553479431441839 
0.001553479431441839 
0.001553479431441839 
0.0003944182487794039 
0.002480782665828865 
0.002480782665828865 
0.002480782665828865 
0.002480782665828865 
0.007493111659590753 
0.01353342115439152 
0.004517064321365632 
0.002460817479457605 
0.002460817479457605 
0.002460817479457605 
0.01135104519775524 
0.1365127634679403 
0.001550993169210189 
0.003101986338420379 
0.001550993169210189 
0.001550993169210189 
0.0003939924992525616 
0.001553479431441839 
0.001553479431441839 
0.001553479431441839 
0.001553479431441839 
0.0003944182487794039 
0.001550993169210189 
0.001550993169210189 
0.001550993169210189 
0.0003939924992525616 
0.001553479431441839 
0.001553479431441839 
0.001553479431441839 
0.001553479431441839 
0.0003944182487794039 
0.002480782665828865 
0.002480782665828865 
0.002480782665828865 
0.002480782665828865 
0.009792605043871253 
0.009792605043871253 
0.009792605043871253 
0.007794009906668733 
0.009792605043871253 
0.009792605043871253 
0.09991600915429495 
0.09991600915429495 
0.09991600915429495 
0.09991600915429495 
0.09583481454528608 
0.09991600915429495 
0.09991600915429495 
0.09991600915429495 
0.1504708067620141 
0.1504708067620141 
0.1504708067620141 
0.1504708067620141 
0.1504708067620141 
0.1504708067620141 
0.1504708067620141 
0.1504708067620141 
0.1504708067620141 
0.1504708067620141 
0.03799993332810649 
0.03799993332810649 
0.03799993332810649 
0.03799993332810649 
0.03799993332810649 
0.03799993332810649 
0.03799993332810649 
0.03799993332810649 
0.03799993332810649 
0.03799993332810649 
0.002472884684717036 
0.002472884684717036 
0.002472884684717036 
0.0005216633365686071 
0.0005216633365686071 
0.0005216633365686071 
0.004767773287007030 
0.004767773287007030 
0.004767773287007030 
0.01258537996972237 
0.01008839722587323 
0.01258537996972237 
0.01217847720954454 
0.01217847720954454 
0.1124723373098807 
0.1124723373098807 
0.1124723373098807 
0.1077735054705109 
0.1124723373098807 
0.1124723373098807 
0.1124723373098807 
0.04184580003347675 
0.04184580003347675 
0.04184580003347675 
0.04184580003347675 
0.04184580003347675 
0.04184580003347675 
0.04184580003347675 
0.001998595137202521 
0.004081194609008867 
0.0001420073005203519 
0.0001420073005203519 
0.0001420073005203519 
0.0001420073005203519 
0.0001420073005203519 
0.0001141416048699044 
0.0001141416048699044 
0.0001141416048699044 
0.0001141416048699044 
0.0001141416048699044 
0.0009621200747514177 
0.002922357783996671 
0.002496982743849135 
0.004698831839369747 
0.0002080180264462869 
0.0001046172484464174 
0.0001046172484464174 
0.0001046172484464174 
0.0002036626149328721 
0.0002114819357785690 
0.002431423922474203 
0.0004246152177176115 
0.008308926460760419 
0.003803138510209518 
0.003129121601792151 
0.008308926460760419 
0.003129121601792151 
0.003129121601792151 
0.001957011692474412 
0.0007087482869973367 
0.0007087482869973367 
0.001957011692474412 
0.0007087482869973367 
0.0007087482869973367 
0.0007087482869973367 
0.002531918075087880 
0.002531918075087880 
0.002531918075087880 
0.0005742464970597079 
0.0005742464970597079 
0.0005742464970597079 
0.0005742464970597079 
0.0001118530422240784 
0.0001118530422240784 
0.0001118530422240784 
0.002536033741656310 
0.002536033741656310 
0.002536033741656310 
0.0006740169084173674 
0.0006740169084173674 
0.0006740169084173674 
0.006171690427451245 
0.003122034714038347 
0.006171690427451245 
0.006171690427451245 
0.003122034714038347 
0.001350347845149443 
0.001350347845149443 
0.001350347845149443 
0.0006999642567043238 
0.003049655713412897 
0.0006503835884451195 
